digraph Tree {
node [shape=box, style="filled, rounded", color="black", fontname=helvetica] ;
edge [fontname=helvetica] ;
0 [label="Thalassemia_Fixed <= 0.5\ngini = 0.49\nsamples = 100.0%\nvalue = [0.44, 0.56]\nclass = Disease", fillcolor="#399de539"] ;
1 [label="Vessel <= 0.5\n0.38\n43.8%\n[0.75, 0.25]\nDisease", fillcolor="#e58139a9"] ;
0 -> 1 [labeldistance=2.5, labelangle=45, headlabel="True"] ;
2 [label="Ex_Angina_Y <= 0.5\n0.5\n19.1%\n[0.54, 0.46]\nDisease", fillcolor="#e5813924"] ;
1 -> 2 ;
3 [label="0.45\n10.7%\n[0.34, 0.66]\nDisease", fillcolor="#399de579"] ;
2 -> 3 ;
4 [label="0.34\n8.5%\n[0.78, 0.22]\nDisease", fillcolor="#e58139b8"] ;
2 -> 4 ;
5 [label="Rest_BP <= 109.0\n0.16\n24.6%\n[0.91, 0.09]\nDisease", fillcolor="#e58139e6"] ;
1 -> 5 ;
6 [label="0.44\n1.1%\n[0.33, 0.67]\nDisease", fillcolor="#399de57f"] ;
5 -> 6 ;
7 [label="0.12\n23.5%\n[0.94, 0.06]\nDisease", fillcolor="#e58139ee"] ;
5 -> 7 ;
8 [label="Vessel <= 0.5\n0.32\n56.2%\n[0.2, 0.8]\nDisease", fillcolor="#399de5c1"] ;
0 -> 8 [labeldistance=2.5, labelangle=-45, headlabel="False"] ;
9 [label="Age <= 57.5\n0.16\n38.6%\n[0.09, 0.91]\nDisease", fillcolor="#399de5e7"] ;
8 -> 9 ;
10 [label="0.05\n27.6%\n[0.03, 0.97]\nDisease", fillcolor="#399de5f8"] ;
9 -> 10 ;
11 [label="0.36\n11.0%\n[0.23, 0.77]\nDisease", fillcolor="#399de5b1"] ;
9 -> 11 ;
12 [label="Chest_pain_atypical <= 0.5\n0.49\n17.6%\n[0.44, 0.56]\nDisease", fillcolor="#399de539"] ;
8 -> 12 ;
13 [label="0.47\n11.8%\n[0.62, 0.38]\nDisease", fillcolor="#e5813966"] ;
12 -> 13 ;
14 [label="0.12\n5.9%\n[0.06, 0.94]\nDisease", fillcolor="#399de5ee"] ;
12 -> 14 ;
}